<?xml version="1.0"?>
<opencv_storage>
<stage14>
  <maxWeakCount>21</maxWeakCount>
  <stageThreshold>-1.3872649669647217e+000</stageThreshold>
  <weakClassifiers>
    <_>
      <internalNodes>
        0 -1 72187 -2.8061063960194588e-002</internalNodes>
      <leafValues>
        2.1621622145175934e-001 -5.3738909959793091e-001</leafValues></_>
    <_>
      <internalNodes>
        0 -1 17184 -2.8242790140211582e-003</internalNodes>
      <leafValues>
        6.4357495307922363e-001 -1.4976637065410614e-001</leafValues></_>
    <_>
      <internalNodes>
        0 -1 161106 -4.0397787233814597e-004</internalNodes>
      <leafValues>
        2.8660985827445984e-001 -2.4258299171924591e-001</leafValues></_>
    <_>
      <internalNodes>
        0 -1 34341 -7.9165967181324959e-003</internalNodes>
      <leafValues>
        3.7979170680046082e-001 -1.8151704967021942e-001</leafValues></_>
    <_>
      <internalNodes>
        0 -1 10916 1.2535284273326397e-002</internalNodes>
      <leafValues>
        1.3223618268966675e-001 -4.8795816302299500e-001</leafValues></_>
    <_>
      <internalNodes>
        0 -1 106972 -1.5597376041114330e-002</internalNodes>
      <leafValues>
        -7.5241458415985107e-001 1.1713762581348419e-001</leafValues></_>
    <_>
      <internalNodes>
        0 -1 98490 -3.7754718214273453e-003</internalNodes>
      <leafValues>
        4.2670491337776184e-001 -1.7610141634941101e-001</leafValues></_>
    <_>
      <internalNodes>
        0 -1 28793 -4.3330062180757523e-003</internalNodes>
      <leafValues>
        -6.4807218313217163e-001 9.7089484333992004e-002</leafValues></_>
    <_>
      <internalNodes>
        0 -1 9042 3.5313782282173634e-003</internalNodes>
      <leafValues>
        -1.8876972794532776e-001 3.9519765973091125e-001</leafValues></_>
    <_>
      <internalNodes>
        0 -1 122125 -2.2878188174217939e-003</internalNodes>
      <leafValues>
        4.4006007909774780e-001 -1.3997286558151245e-001</leafValues></_>
    <_>
      <internalNodes>
        0 -1 69851 -7.4645213317126036e-004</internalNodes>
      <leafValues>
        -5.1501655578613281e-001 1.4115214347839355e-001</leafValues></_>
    <_>
      <internalNodes>
        0 -1 60589 2.3184023797512054e-002</internalNodes>
      <leafValues>
        1.0210606455802917e-001 -6.6981589794158936e-001</leafValues></_>
    <_>
      <internalNodes>
        0 -1 113467 -4.2219283059239388e-003</internalNodes>
      <leafValues>
        4.3724054098129272e-001 -1.5896843373775482e-001</leafValues></_>
    <_>
      <internalNodes>
        0 -1 97232 -1.9433810375630856e-003</internalNodes>
      <leafValues>
        3.7049362063407898e-001 -1.8512748181819916e-001</leafValues></_>
    <_>
      <internalNodes>
        0 -1 152660 8.7019249796867371e-002</internalNodes>
      <leafValues>
        1.0181394219398499e-001 -6.4519685506820679e-001</leafValues></_>
    <_>
      <internalNodes>
        0 -1 156099 -5.4329177364706993e-003</internalNodes>
      <leafValues>
        -7.5100994110107422e-001 8.7594814598560333e-002</leafValues></_>
    <_>
      <internalNodes>
        0 -1 162209 -3.3848979510366917e-003</internalNodes>
      <leafValues>
        -4.5535787940025330e-001 1.3947056233882904e-001</leafValues></_>
    <_>
      <internalNodes>
        0 -1 10562 -1.0630307951942086e-003</internalNodes>
      <leafValues>
        4.9214279651641846e-001 -1.5434210002422333e-001</leafValues></_>
    <_>
      <internalNodes>
        0 -1 157528 -9.6526266133878380e-005</internalNodes>
      <leafValues>
        1.8435159325599670e-001 -3.7548103928565979e-001</leafValues></_>
    <_>
      <internalNodes>
        0 -1 157498 1.9117516058031470e-004</internalNodes>
      <leafValues>
        1.1987956613302231e-001 -5.2809053659439087e-001</leafValues></_>
    <_>
      <internalNodes>
        0 -1 10023 5.4360635112971067e-004</internalNodes>
      <leafValues>
        -2.2094345092773438e-001 3.2935392856597900e-001</leafValues></_></weakClassifiers></stage14>
</opencv_storage>
